Language model created by QuickLM on Thu Aug  2 17:38:33 EDT 2018
Copyright (c) 1996-2010 Carnegie Mellon University and Alexander I. Rudnicky

The model is in standard ARPA format, designed by Doug Paul while he was at MITRE.

The code that was used to produce this language model is available in Open Source.
Please visit http://www.speech.cs.cmu.edu/tools/ for more information

The (fixed) discount mass is 0.5. The backoffs are computed using the ratio method.
This model based on a corpus of 4 sentences and 5 words

\data\
ngram 1=5
ngram 2=7
ngram 3=5

\1-grams:
-0.8129 </s> -0.3010
-0.8129 <s> -0.2083
-1.1139 FOLLOW -0.1871
-1.4150 GO -0.2285
-1.1139 ME -0.2285

\2-grams:
-0.6021 <s> FOLLOW 0.0000
-0.9031 <s> GO 0.0000
-0.9031 <s> ME 0.0000
-0.6021 FOLLOW </s> -0.3010
-0.6021 FOLLOW ME 0.0000
-0.3010 GO </s> -0.3010
-0.3010 ME </s> -0.3010

\3-grams:
-0.6021 <s> FOLLOW </s>
-0.6021 <s> FOLLOW ME
-0.3010 <s> GO </s>
-0.3010 <s> ME </s>
-0.3010 FOLLOW ME </s>

\end\
